<?xml version="1.0"?>
<opencv_storage>
<opencv_ml_svm>
  <format>3</format>
  <svmType>C_SVC</svmType>
  <kernel>
    <type>CHI2</type>
    <gamma>1.</gamma></kernel>
  <C>1.</C>
  <term_criteria><iterations>100</iterations></term_criteria>
  <var_count>3</var_count>
  <class_count>3</class_count>
  <class_labels type_id="opencv-matrix">
    <rows>3</rows>
    <cols>1</cols>
    <dt>i</dt>
    <data>
      0 1 2</data></class_labels>
  <sv_total>28</sv_total>
  <support_vectors>
    <_>
      1.21550000e+03 1.02564108e+00 1.</_>
    <_>
      1265. 1.02564108e+00 1.</_>
    <_>
      1.28450000e+03 1. 1.</_>
    <_>
      1.21950000e+03 1.02564108e+00 1.</_>
    <_>
      814. 1. 1.</_>
    <_>
      813. 1.03125000e+00 1.</_>
    <_>
      781. 1. 1.</_>
    <_>
      8.03500000e+02 1. 1.</_>
    <_>
      8.46500000e+02 1. 1.</_>
    <_>
      812. 1.06666672e+00 1.</_>
    <_>
      824. 1.12903225e+00 1.</_>
    <_>
      872. 1.12500000e+00 1.</_>
    <_>
      906. 1.08510649e+00 1.</_>
    <_>
      853. 1.09375000e+00 1.</_>
    <_>
      1955. 3.09947681e+00 0.</_>
    <_>
      2146. 3.07849813e+00 0.</_>
    <_>
      1.27350000e+03 1.85714281e+00 0.</_>
    <_>
      2229. 3.07692337e+00 0.</_>
    <_>
      2364. 2.97370553e+00 0.</_>
    <_>
      2137. 3.10447741e+00 1.</_>
    <_>
      2.09750000e+03 3.04347849e+00 0.</_>
    <_>
      1914. 3.82039809e+00 1.</_>
    <_>
      648. 3.55932188e+00 0.</_>
    <_>
      5.44500000e+02 4.10356236e+00 0.</_>
    <_>
      645. 3.64849043e+00 1.</_>
    <_>
      6.74500000e+02 3.74388456e+00 0.</_>
    <_>
      5.69500000e+02 3.73659706e+00 1.</_>
    <_>
      535. 3.86956501e+00 0.</_></support_vectors>
  <decision_functions>
    <_>
      <sv_count>10</sv_count>
      <rho>-3.9167627558906332e-01</rho>
      <alpha>
        5.2950037699571051e-01 5.2950037699571073e-01 1.
        4.0943761166350850e-01 1.7615752253538855e-01 1. -1.
        -6.9769745043823050e-01 -9.4689843775208815e-01 -1.</alpha>
      <index>
        0 2 4 5 6 8 10 11 12 13</index></_>
    <_>
      <sv_count>23</sv_count>
      <rho>5.1373780760396004e-01</rho>
      <alpha>
        1. 4.5893802135948325e-01 1. 2.2410764821106810e-01
        1.4065027249234838e-01 1. 4.8564672802502241e-02 1.
        2.9455187055576121e-01 -3.9578919930395651e-01
        -7.0695622311899436e-02 -9.8170169961015252e-01
        -4.3769778255686698e-01 -4.7807871394271562e-01
        -3.4941283847790755e-01 -3.4609538725078315e-01
        -3.9876359707756465e-01 -1.6587434586054051e-01
        -1.5995067404325214e-02 -3.6093342895735825e-01
        -3.2056647499172014e-01 -4.2689724952404828e-01
        -4.1831107815132434e-01</alpha>
      <index>
        0 1 2 3 4 6 7 8 9 14 15 16 17 18 19 20 21 22 23 24 25 26 27</index></_>
    <_>
      <sv_count>18</sv_count>
      <rho>6.8884917066178797e-01</rho>
      <alpha>
        1. 5.7169205233833553e-01 1. 4.1750964837360505e-01
        -2.5324602574920146e-01 -4.5169931724548973e-02
        -3.1114943905728637e-01 -2.8012052497920165e-01
        -3.0586712576280939e-01 -2.2365205392118584e-01
        -2.2147717973023842e-01 -2.5515804319242869e-01
        -1.0618736499179063e-01 -1.0072871889382058e-02
        -2.3093383700413825e-01 -2.0511094152486239e-01
        -2.7324465983191715e-01 -2.6781170135294985e-01</alpha>
      <index>
        10 11 12 13 14 15 16 17 18 19 20 21 22 23 24 25 26 27</index></_></decision_functions></opencv_ml_svm>
</opencv_storage>
